Language model created by QuickLM on Fri May 12 10:07:32 EDT 2017
Copyright (c) 1996-2010 Carnegie Mellon University and Alexander I. Rudnicky

The model is in standard ARPA format, designed by Doug Paul while he was at MITRE.

The code that was used to produce this language model is available in Open Source.
Please visit http://www.speech.cs.cmu.edu/tools/ for more information

The (fixed) discount mass is 0.5. The backoffs are computed using the ratio method.
This model based on a corpus of 77 sentences and 80 words

\data\
ngram 1=80
ngram 2=155
ngram 3=79

\1-grams:
-0.7819 </s> -0.3010
-0.7819 <s> -0.2226
-2.6684 A1 -0.2226
-2.6684 A2 -0.2226
-2.6684 A3 -0.2226
-2.6684 A4 -0.2226
-2.6684 A5 -0.2226
-2.6684 A6 -0.2226
-2.6684 A7 -0.2226
-2.6684 A8 -0.2226
-2.6684 B1 -0.2226
-2.6684 B2 -0.2226
-2.6684 B3 -0.2226
-2.6684 B4 -0.2226
-2.6684 B5 -0.2226
-2.6684 B6 -0.2226
-2.6684 B7 -0.2226
-2.6684 B8 -0.2226
-2.6684 BISHOP -0.2226
-2.6684 C1 -0.2226
-2.6684 C2 -0.2226
-2.6684 C3 -0.2226
-2.6684 C4 -0.2226
-2.6684 C5 -0.2226
-2.6684 C6 -0.2226
-2.6684 C7 -0.2226
-2.6684 C8 -0.2226
-2.3674 CASTLES -0.2226
-2.6684 CHECK -0.2226
-2.6684 D1 -0.2226
-2.6684 D2 -0.2226
-2.6684 D3 -0.2226
-2.6684 D4 -0.2226
-2.6684 D5 -0.2226
-2.6684 D6 -0.2226
-2.6684 D7 -0.2226
-2.6684 D8 -0.2226
-2.6684 E1 -0.2226
-2.6684 E2 -0.2226
-2.6684 E3 -0.2226
-2.6684 E4 -0.2226
-2.6684 E5 -0.2226
-2.6684 E6 -0.2226
-2.6684 E7 -0.2226
-2.6684 E8 -0.2226
-2.6684 F1 -0.2226
-2.6684 F2 -0.2226
-2.6684 F3 -0.2226
-2.6684 F4 -0.2226
-2.6684 F5 -0.2226
-2.6684 F6 -0.2226
-2.6684 F7 -0.2226
-2.6684 F8 -0.2226
-2.6684 G1 -0.2226
-2.6684 G2 -0.2226
-2.6684 G3 -0.2226
-2.6684 G4 -0.2226
-2.6684 G5 -0.2226
-2.6684 G6 -0.2226
-2.6684 G7 -0.2226
-2.6684 G8 -0.2226
-2.6684 H1 -0.2226
-2.6684 H2 -0.2226
-2.6684 H3 -0.2226
-2.6684 H4 -0.2226
-2.6684 H5 -0.2226
-2.6684 H6 -0.2226
-2.6684 H7 -0.2226
-2.6684 H8 -0.2226
-2.6684 KING -0.2226
-2.6684 KNIGHT -0.2226
-2.6684 LONG -0.2992
-2.6684 MATE -0.2226
-2.6684 PAWN -0.2226
-2.6684 PROMOTES -0.2226
-2.6684 QUEEN -0.2226
-2.6684 ROOK -0.2226
-2.6684 SHORT -0.2992
-2.6684 TAKES -0.2226
-2.6684 TO -0.2226

\2-grams:
-2.1875 <s> A1 0.0000
-2.1875 <s> A2 0.0000
-2.1875 <s> A3 0.0000
-2.1875 <s> A4 0.0000
-2.1875 <s> A5 0.0000
-2.1875 <s> A6 0.0000
-2.1875 <s> A7 0.0000
-2.1875 <s> A8 0.0000
-2.1875 <s> B1 0.0000
-2.1875 <s> B2 0.0000
-2.1875 <s> B3 0.0000
-2.1875 <s> B4 0.0000
-2.1875 <s> B5 0.0000
-2.1875 <s> B6 0.0000
-2.1875 <s> B7 0.0000
-2.1875 <s> B8 0.0000
-2.1875 <s> BISHOP 0.0000
-2.1875 <s> C1 0.0000
-2.1875 <s> C2 0.0000
-2.1875 <s> C3 0.0000
-2.1875 <s> C4 0.0000
-2.1875 <s> C5 0.0000
-2.1875 <s> C6 0.0000
-2.1875 <s> C7 0.0000
-2.1875 <s> C8 0.0000
-2.1875 <s> CHECK 0.0000
-2.1875 <s> D1 0.0000
-2.1875 <s> D2 0.0000
-2.1875 <s> D3 0.0000
-2.1875 <s> D4 0.0000
-2.1875 <s> D5 0.0000
-2.1875 <s> D6 0.0000
-2.1875 <s> D7 0.0000
-2.1875 <s> D8 0.0000
-2.1875 <s> E1 0.0000
-2.1875 <s> E2 0.0000
-2.1875 <s> E3 0.0000
-2.1875 <s> E4 0.0000
-2.1875 <s> E5 0.0000
-2.1875 <s> E6 0.0000
-2.1875 <s> E7 0.0000
-2.1875 <s> E8 0.0000
-2.1875 <s> F1 0.0000
-2.1875 <s> F2 0.0000
-2.1875 <s> F3 0.0000
-2.1875 <s> F4 0.0000
-2.1875 <s> F5 0.0000
-2.1875 <s> F6 0.0000
-2.1875 <s> F7 0.0000
-2.1875 <s> F8 0.0000
-2.1875 <s> G1 0.0000
-2.1875 <s> G2 0.0000
-2.1875 <s> G3 0.0000
-2.1875 <s> G4 0.0000
-2.1875 <s> G5 0.0000
-2.1875 <s> G6 0.0000
-2.1875 <s> G7 0.0000
-2.1875 <s> G8 0.0000
-2.1875 <s> H1 0.0000
-2.1875 <s> H2 0.0000
-2.1875 <s> H3 0.0000
-2.1875 <s> H4 0.0000
-2.1875 <s> H5 0.0000
-2.1875 <s> H6 0.0000
-2.1875 <s> H7 0.0000
-2.1875 <s> H8 0.0000
-2.1875 <s> KING 0.0000
-2.1875 <s> KNIGHT 0.0000
-2.1875 <s> LONG 0.0000
-2.1875 <s> MATE 0.0000
-2.1875 <s> PAWN 0.0000
-2.1875 <s> PROMOTES 0.0000
-2.1875 <s> QUEEN 0.0000
-2.1875 <s> ROOK 0.0000
-2.1875 <s> SHORT 0.0000
-2.1875 <s> TAKES 0.0000
-2.1875 <s> TO 0.0000
-0.3010 A1 </s> -0.3010
-0.3010 A2 </s> -0.3010
-0.3010 A3 </s> -0.3010
-0.3010 A4 </s> -0.3010
-0.3010 A5 </s> -0.3010
-0.3010 A6 </s> -0.3010
-0.3010 A7 </s> -0.3010
-0.3010 A8 </s> -0.3010
-0.3010 B1 </s> -0.3010
-0.3010 B2 </s> -0.3010
-0.3010 B3 </s> -0.3010
-0.3010 B4 </s> -0.3010
-0.3010 B5 </s> -0.3010
-0.3010 B6 </s> -0.3010
-0.3010 B7 </s> -0.3010
-0.3010 B8 </s> -0.3010
-0.3010 BISHOP </s> -0.3010
-0.3010 C1 </s> -0.3010
-0.3010 C2 </s> -0.3010
-0.3010 C3 </s> -0.3010
-0.3010 C4 </s> -0.3010
-0.3010 C5 </s> -0.3010
-0.3010 C6 </s> -0.3010
-0.3010 C7 </s> -0.3010
-0.3010 C8 </s> -0.3010
-0.3010 CASTLES </s> -0.3010
-0.3010 CHECK </s> -0.3010
-0.3010 D1 </s> -0.3010
-0.3010 D2 </s> -0.3010
-0.3010 D3 </s> -0.3010
-0.3010 D4 </s> -0.3010
-0.3010 D5 </s> -0.3010
-0.3010 D6 </s> -0.3010
-0.3010 D7 </s> -0.3010
-0.3010 D8 </s> -0.3010
-0.3010 E1 </s> -0.3010
-0.3010 E2 </s> -0.3010
-0.3010 E3 </s> -0.3010
-0.3010 E4 </s> -0.3010
-0.3010 E5 </s> -0.3010
-0.3010 E6 </s> -0.3010
-0.3010 E7 </s> -0.3010
-0.3010 E8 </s> -0.3010
-0.3010 F1 </s> -0.3010
-0.3010 F2 </s> -0.3010
-0.3010 F3 </s> -0.3010
-0.3010 F4 </s> -0.3010
-0.3010 F5 </s> -0.3010
-0.3010 F6 </s> -0.3010
-0.3010 F7 </s> -0.3010
-0.3010 F8 </s> -0.3010
-0.3010 G1 </s> -0.3010
-0.3010 G2 </s> -0.3010
-0.3010 G3 </s> -0.3010
-0.3010 G4 </s> -0.3010
-0.3010 G5 </s> -0.3010
-0.3010 G6 </s> -0.3010
-0.3010 G7 </s> -0.3010
-0.3010 G8 </s> -0.3010
-0.3010 H1 </s> -0.3010
-0.3010 H2 </s> -0.3010
-0.3010 H3 </s> -0.3010
-0.3010 H4 </s> -0.3010
-0.3010 H5 </s> -0.3010
-0.3010 H6 </s> -0.3010
-0.3010 H7 </s> -0.3010
-0.3010 H8 </s> -0.3010
-0.3010 KING </s> -0.3010
-0.3010 KNIGHT </s> -0.3010
-0.3010 LONG CASTLES 0.0000
-0.3010 MATE </s> -0.3010
-0.3010 PAWN </s> -0.3010
-0.3010 PROMOTES </s> -0.3010
-0.3010 QUEEN </s> -0.3010
-0.3010 ROOK </s> -0.3010
-0.3010 SHORT CASTLES 0.0000
-0.3010 TAKES </s> -0.3010
-0.3010 TO </s> -0.3010

\3-grams:
-0.3010 <s> A1 </s>
-0.3010 <s> A2 </s>
-0.3010 <s> A3 </s>
-0.3010 <s> A4 </s>
-0.3010 <s> A5 </s>
-0.3010 <s> A6 </s>
-0.3010 <s> A7 </s>
-0.3010 <s> A8 </s>
-0.3010 <s> B1 </s>
-0.3010 <s> B2 </s>
-0.3010 <s> B3 </s>
-0.3010 <s> B4 </s>
-0.3010 <s> B5 </s>
-0.3010 <s> B6 </s>
-0.3010 <s> B7 </s>
-0.3010 <s> B8 </s>
-0.3010 <s> BISHOP </s>
-0.3010 <s> C1 </s>
-0.3010 <s> C2 </s>
-0.3010 <s> C3 </s>
-0.3010 <s> C4 </s>
-0.3010 <s> C5 </s>
-0.3010 <s> C6 </s>
-0.3010 <s> C7 </s>
-0.3010 <s> C8 </s>
-0.3010 <s> CHECK </s>
-0.3010 <s> D1 </s>
-0.3010 <s> D2 </s>
-0.3010 <s> D3 </s>
-0.3010 <s> D4 </s>
-0.3010 <s> D5 </s>
-0.3010 <s> D6 </s>
-0.3010 <s> D7 </s>
-0.3010 <s> D8 </s>
-0.3010 <s> E1 </s>
-0.3010 <s> E2 </s>
-0.3010 <s> E3 </s>
-0.3010 <s> E4 </s>
-0.3010 <s> E5 </s>
-0.3010 <s> E6 </s>
-0.3010 <s> E7 </s>
-0.3010 <s> E8 </s>
-0.3010 <s> F1 </s>
-0.3010 <s> F2 </s>
-0.3010 <s> F3 </s>
-0.3010 <s> F4 </s>
-0.3010 <s> F5 </s>
-0.3010 <s> F6 </s>
-0.3010 <s> F7 </s>
-0.3010 <s> F8 </s>
-0.3010 <s> G1 </s>
-0.3010 <s> G2 </s>
-0.3010 <s> G3 </s>
-0.3010 <s> G4 </s>
-0.3010 <s> G5 </s>
-0.3010 <s> G6 </s>
-0.3010 <s> G7 </s>
-0.3010 <s> G8 </s>
-0.3010 <s> H1 </s>
-0.3010 <s> H2 </s>
-0.3010 <s> H3 </s>
-0.3010 <s> H4 </s>
-0.3010 <s> H5 </s>
-0.3010 <s> H6 </s>
-0.3010 <s> H7 </s>
-0.3010 <s> H8 </s>
-0.3010 <s> KING </s>
-0.3010 <s> KNIGHT </s>
-0.3010 <s> LONG CASTLES
-0.3010 <s> MATE </s>
-0.3010 <s> PAWN </s>
-0.3010 <s> PROMOTES </s>
-0.3010 <s> QUEEN </s>
-0.3010 <s> ROOK </s>
-0.3010 <s> SHORT CASTLES
-0.3010 <s> TAKES </s>
-0.3010 <s> TO </s>
-0.3010 LONG CASTLES </s>
-0.3010 SHORT CASTLES </s>

\end\
